digraph Tree {
node [shape=box, style="filled, rounded", color="black", fontname=helvetica] ;
edge [fontname=helvetica] ;
0 [label="Berberine bridge enzyme-like 3  <= 10.39\ngini = 0.92\nsamples = 35\nvalue = [3, 3, 3, 3, 3, 3, 3, 3, 3, 3, 3, 2]\nclass = cer_w_6h", fillcolor="#e5813900"] ;
1 [label="None <= 7.62\ngini = 0.91\nsamples = 32\nvalue = [3, 3, 3, 3, 3, 3, 3, 3, 0, 3, 3, 2]\nclass = cer_w_6h", fillcolor="#e5813900"] ;
0 -> 1 [labeldistance=2.5, labelangle=45, headlabel="True"] ;
2 [label="gini = 0.0\nsamples = 3\nvalue = [0, 3, 0, 0, 0, 0, 0, 0, 0, 0, 0, 0]\nclass = col_w_6h", fillcolor="#e5d739ff"] ;
1 -> 2 ;
3 [label="Probable WRKY transcription factor 30  <= 8.92\ngini = 0.9\nsamples = 29\nvalue = [3, 0, 3, 3, 3, 3, 3, 3, 0, 3, 3, 2]\nclass = cer_w_6h", fillcolor="#e5813900"] ;
1 -> 3 ;
4 [label="None <= 8.68\ngini = 0.89\nsamples = 26\nvalue = [3, 0, 3, 3, 0, 3, 3, 3, 0, 3, 3, 2]\nclass = cer_w_6h", fillcolor="#e5813900"] ;
3 -> 4 ;
5 [label="Glutathione S-transferase F6  <= 13.66\ngini = 0.87\nsamples = 23\nvalue = [3, 0, 3, 3, 0, 3, 3, 3, 0, 3, 0, 2]\nclass = cer_w_6h", fillcolor="#e5813900"] ;
4 -> 5 ;
6 [label="Hsp70-Hsp90 organizing protein 2  <= 10.63\ngini = 0.86\nsamples = 20\nvalue = [3, 0, 3, 3, 0, 0, 3, 3, 0, 3, 0, 2]\nclass = cer_w_6h", fillcolor="#e5813900"] ;
5 -> 6 ;
7 [label="Cytochrome P450 81D11  <= 8.61\ngini = 0.83\nsamples = 17\nvalue = [3, 0, 3, 3, 0, 0, 3, 3, 0, 0, 0, 2]\nclass = cer_w_6h", fillcolor="#e5813900"] ;
6 -> 7 ;
8 [label="Probable calcium-binding protein CML41  <= 7.06\ngini = 0.8\nsamples = 14\nvalue = [3, 0, 3, 3, 0, 0, 3, 0, 0, 0, 0, 2]\nclass = cer_w_6h", fillcolor="#e5813900"] ;
7 -> 8 ;
9 [label="gini = 0.0\nsamples = 3\nvalue = [0, 0, 0, 0, 0, 0, 3, 0, 0, 0, 0, 0]\nclass = lym_c_6h", fillcolor="#399de5ff"] ;
8 -> 9 ;
10 [label="Lysine histidine transporter-like 7  <= 7.29\ngini = 0.74\nsamples = 11\nvalue = [3, 0, 3, 3, 0, 0, 0, 0, 0, 0, 0, 2]\nclass = cer_w_6h", fillcolor="#e5813900"] ;
8 -> 10 ;
11 [label="Heat shock protein 70 (Hsp 70) family protein  <= 11.65\ngini = 0.66\nsamples = 8\nvalue = [3, 0, 0, 3, 0, 0, 0, 0, 0, 0, 0, 2]\nclass = cer_w_6h", fillcolor="#e5813900"] ;
10 -> 11 ;
12 [label="gini = 0.0\nsamples = 3\nvalue = [3, 0, 0, 0, 0, 0, 0, 0, 0, 0, 0, 0]\nclass = cer_w_6h", fillcolor="#e58139ff"] ;
11 -> 12 ;
13 [label="At5g21940  <= 9.35\ngini = 0.48\nsamples = 5\nvalue = [0, 0, 0, 3, 0, 0, 0, 0, 0, 0, 0, 2]\nclass = lym_c_05h", fillcolor="#47e53955"] ;
11 -> 13 ;
14 [label="gini = 0.0\nsamples = 3\nvalue = [0, 0, 0, 3, 0, 0, 0, 0, 0, 0, 0, 0]\nclass = lym_c_05h", fillcolor="#47e539ff"] ;
13 -> 14 ;
15 [label="gini = 0.0\nsamples = 2\nvalue = [0, 0, 0, 0, 0, 0, 0, 0, 0, 0, 0, 2]\nclass = cer_c_6h", fillcolor="#e53947ff"] ;
13 -> 15 ;
16 [label="gini = 0.0\nsamples = 3\nvalue = [0, 0, 3, 0, 0, 0, 0, 0, 0, 0, 0, 0]\nclass = col_c_05h", fillcolor="#9de539ff"] ;
10 -> 16 ;
17 [label="gini = 0.0\nsamples = 3\nvalue = [0, 0, 0, 0, 0, 0, 0, 3, 0, 0, 0, 0]\nclass = lym_w_05h", fillcolor="#3947e5ff"] ;
7 -> 17 ;
18 [label="gini = 0.0\nsamples = 3\nvalue = [0, 0, 0, 0, 0, 0, 0, 0, 0, 3, 0, 0]\nclass = lym_w_6h", fillcolor="#d739e5ff"] ;
6 -> 18 ;
19 [label="gini = 0.0\nsamples = 3\nvalue = [0, 0, 0, 0, 0, 3, 0, 0, 0, 0, 0, 0]\nclass = col_c_6h", fillcolor="#39e5d7ff"] ;
5 -> 19 ;
20 [label="gini = 0.0\nsamples = 3\nvalue = [0, 0, 0, 0, 0, 0, 0, 0, 0, 0, 3, 0]\nclass = col_w_05h", fillcolor="#e5399dff"] ;
4 -> 20 ;
21 [label="gini = 0.0\nsamples = 3\nvalue = [0, 0, 0, 0, 3, 0, 0, 0, 0, 0, 0, 0]\nclass = cer_c_05h", fillcolor="#39e581ff"] ;
3 -> 21 ;
22 [label="gini = 0.0\nsamples = 3\nvalue = [0, 0, 0, 0, 0, 0, 0, 0, 3, 0, 0, 0]\nclass = cer_w_05h", fillcolor="#8139e5ff"] ;
0 -> 22 [labeldistance=2.5, labelangle=-45, headlabel="False"] ;
}